-9.845678694546222687e-03
1.197513937950134277e-02
2.120039016008377075e-01
3.194433078169822693e-02
-1.584370136260986328e-01
8.424717932939529419e-02
1.370067745447158813e-01
1.048039365559816360e-02
1.110479906201362610e-01
-4.128065705299377441e-01
-1.064437348395586014e-02
-2.803937532007694244e-02
1.123085385188460350e-03
-6.342601031064987183e-03
-5.345365405082702637e-02
-3.265715390443801880e-02
1.028047315776348114e-02
8.573909848928451538e-02
4.131210502237081528e-03
-5.020219460129737854e-02
-7.128532230854034424e-02
-2.464214712381362915e-02
1.028406247496604919e-02
-3.429998084902763367e-02
-1.641962304711341858e-02
1.156516186892986298e-02
3.074230626225471497e-02
-2.790708094835281372e-02
4.557468369603157043e-02
-2.138618752360343933e-02
-1.068053860217332840e-02
-1.100418064743280411e-02
-2.974048024043440819e-03
-4.905770998448133469e-03
-6.268013268709182739e-03
-7.647250313311815262e-03
1.453687250614166260e-02
-3.377557918429374695e-02
8.532529696822166443e-03
9.706879034638404846e-03
-2.542794868350028992e-02
4.190837964415550232e-02
-1.691825687885284424e-02
-1.879536919295787811e-02
-4.176696240901947021e-01
3.976551294326782227e-01
2.922618994489312172e-03
-9.935529902577400208e-03
1.046638935804367065e-01
1.391191128641366959e-02
4.866376693826168776e-04
4.132839143276214600e-01
-2.001920714974403381e-02
-2.094068750739097595e-02
3.442091867327690125e-02
-6.282450631260871887e-04
-2.571754530072212219e-02
-1.887054299004375935e-03
5.812089890241622925e-02
-1.543766260147094727e-01
-7.808940019458532333e-03
2.936938591301441193e-02
1.566731953062117100e-04
1.169971004128456116e-02
9.853675961494445801e-02
7.168389856815338135e-03
8.139814436435699463e-02
9.277704171836376190e-03
8.820380753604695201e-05
8.897185325622558594e-02
-2.126176608726382256e-03
7.918098568916320801e-01
8.007274940609931946e-03
-3.408709540963172913e-03
-5.128021240234375000e-01
1.561379525810480118e-02
9.193715639412403107e-03
9.714835323393344879e-03
-3.894285857677459717e-02
-2.799319662153720856e-02
9.463494643568992615e-03
1.105996407568454742e-02
1.794133521616458893e-02
2.660991251468658447e-02
-8.275992870330810547e-01
3.988642990589141846e-01
-1.742794364690780640e-01
1.327360272407531738e-01
-3.482490405440330505e-02
1.252469420433044434e-02
2.910952270030975342e-02
-2.046938613057136536e-02
-5.561154708266258240e-02
-6.909613311290740967e-02
8.199071511626243591e-03
9.510482661426067352e-03
-2.733965218067169189e-02
-2.575844712555408478e-02
1.563105848617851734e-03
-6.851798854768276215e-03
2.391173690557479858e-02
-2.479343116283416748e-02
4.576840437948703766e-03
4.393338784575462341e-02
-3.047170117497444153e-03
-2.628403156995773315e-02
-3.228820860385894775e-02
-5.845149606466293335e-02
-1.064115241169929504e-01
-9.347859770059585571e-03
5.682693049311637878e-02
5.190256051719188690e-03
-3.758356720209121704e-02
-8.849206380546092987e-03
2.994467914104461670e-01
-3.242143690586090088e-01
-1.243618223816156387e-02
2.168638166040182114e-03
-3.699049819260835648e-03
-1.727630384266376495e-02
2.403730154037475586e-02
1.967223128303885460e-03
2.249673008918762207e-02
6.131139025092124939e-02
-8.461261168122291565e-03
-2.526411972939968109e-02
8.690285496413707733e-03
-2.787896990776062012e-02
-1.119553297758102417e-02
2.437642775475978851e-03
3.008053079247474670e-02
6.060489919036626816e-03
-3.320695459842681885e-02
5.770188290625810623e-03
-1.682613656157627702e-04
1.947169750928878784e-02
-1.421298366039991379e-04
1.109269447624683380e-02
-6.710123270750045776e-02
-4.850935656577348709e-03
2.046181261539459229e-02
2.030474692583084106e-02
3.039709059521555901e-03
-4.864753782749176025e-02
9.524893760681152344e-01
-2.718781121075153351e-02
3.786793723702430725e-02
-6.389996968209743500e-03
5.035578273236751556e-03
8.069799514487385750e-04
2.064389176666736603e-02
-5.537855997681617737e-02
-9.070028550922870636e-03
7.918309569358825684e-01
-7.357255090028047562e-03
-5.073485374450683594e-01
-1.413401216268539429e-02
-1.200836559291929007e-04
-2.567333169281482697e-02
7.653396460227668285e-04
2.136468887329101562e-02
2.553986944258213043e-02
2.873043343424797058e-02
2.415726333856582642e-02
1.043265406042337418e-02
4.931028815917670727e-04
1.838348805904388428e-03
-3.432916477322578430e-02
1.524867722764611244e-03
1.722872443497180939e-02
1.111755054444074631e-02
-2.842494100332260132e-02
-3.497930988669395447e-02
-2.390728518366813660e-02
1.024544704705476761e-02
-3.337400779128074646e-02
-3.038308955729007721e-02
-1.514124218374490738e-03
-1.299593970179557800e-02
-1.635349169373512268e-02
-9.840938448905944824e-01
-9.852221235632896423e-03
-1.185511983931064606e-02
-5.057364702224731445e-02
-1.928122155368328094e-02
1.910696737468242645e-02
-1.208725105971097946e-02
1.305334687232971191e+00
-1.259586215019226074e-02
-6.481491727754473686e-04
-1.451952662318944931e-02
2.039810642600059509e-03
-9.155338630080223083e-03
-6.889170408248901367e-02
-5.453850142657756805e-03
2.466282993555068970e-02
1.734766550362110138e-02
2.321176975965499878e-02
-2.311432361602783203e-02
-1.439351402223110199e-02
3.184531256556510925e-02
7.405588775873184204e-02
-5.746918730437755585e-03
1.389142591506242752e-03
-3.372800769284367561e-03
-3.260500263422727585e-03
-9.762974828481674194e-02
3.826819658279418945e-01
-1.353035122156143188e-02
1.760164834558963776e-02
6.481650751084089279e-03
-8.938498795032501221e-02
-4.497972130775451660e-02
3.463407605886459351e-02
-7.544121704995632172e-03
3.394855652004480362e-03
-1.202250923961400986e-02
-2.664743177592754364e-02
-3.810385987162590027e-02
3.215325623750686646e-02
-6.474290788173675537e-02
-3.630684688687324524e-02
-5.968790967017412186e-03
4.539898596704006195e-03
-8.198340074159204960e-04
1.855402812361717224e-02
5.756609514355659485e-02
-3.098038258031010628e-03
1.113081816583871841e-02
5.590446665883064270e-02
4.998439550399780273e-02
7.978005707263946533e-02
1.226338371634483337e-02
2.728984132409095764e-02
8.543439954519271851e-02
-4.943367242813110352e-01
-6.766630709171295166e-02
1.332308202981948853e-01
-2.053046599030494690e-03
8.389296941459178925e-03
6.085764616727828979e-04
8.000194430351257324e-01
-2.162543497979640961e-02
8.577821776270866394e-03
1.719591021537780762e-02
-3.458546102046966553e-02
-1.445265952497720718e-02
-6.702223420143127441e-01
3.160050511360168457e-02
-4.754561465233564377e-03
8.724730014801025391e-01
5.283328294754028320e-01
-1.188298314809799194e-02
2.681048773229122162e-02
-1.146529056131839752e-02
-4.477337002754211426e-02
-3.398862108588218689e-02
-5.903067067265510559e-03
-1.447889115661382675e-02
8.342167362570762634e-03
-1.061702519655227661e-02
-8.931563235819339752e-03
2.657715929672122002e-03
6.493499875068664551e-01
-2.980964630842208862e-02
-1.281788107007741928e-02
-5.855327472090721130e-02
-1.147837727330625057e-03
7.473240047693252563e-02
5.708071868866682053e-03
-9.019287303090095520e-03
-6.656190752983093262e-02
-5.172329545021057129e-01
5.976582411676645279e-03
7.160767447203397751e-03
-1.811525039374828339e-02
5.278428550809621811e-03
-1.948810741305351257e-02
-3.717795014381408691e-02
4.942064881324768066e-01
3.701364621520042419e-02
-4.023716226220130920e-02
1.172997336834669113e-02
-1.058593299239873886e-02
-1.584661938250064850e-02
-3.704187646508216858e-02
-4.823503270745277405e-02
4.633707925677299500e-02
1.176001410931348801e-02
2.188727818429470062e-02
3.784152911975979805e-03
1.696158549748361111e-03
2.030516508966684341e-03
-3.019428066909313202e-02
1.883379183709621429e-02
2.631287649273872375e-02
-3.231344744563102722e-02
-2.134766243398189545e-02
1.742823421955108643e-02
-6.032370030879974365e-03
-2.909147739410400391e-02
5.636782050132751465e-01
2.259167656302452087e-02
-8.917535655200481415e-03
4.866910353302955627e-02
-5.622826050966978073e-03
-5.903345532715320587e-03
4.486213251948356628e-02
2.624067105352878571e-02
5.376845598220825195e-02
-3.286259993910789490e-02
2.609350252896547318e-03
-1.338919848203659058e-01
1.398648717440664768e-03
-1.344363670796155930e-03
-3.365616546943783760e-03
2.079423516988754272e-02
-2.231291867792606354e-02
-8.425579965114593506e-02
-1.074683200567960739e-02
1.722196489572525024e-01
2.904137130826711655e-03
5.597361549735069275e-02
-4.134465754032135010e-02
-3.360848128795623779e-02
5.243947356939315796e-02
4.241814371198415756e-03
-2.553654275834560394e-02
2.630992233753204346e-02
-8.630856871604919434e-03
7.269203662872314453e-03
1.328141801059246063e-02
5.929001607000827789e-03
5.655104760080575943e-03
7.012546062469482422e-02
1.498412899672985077e-02
-1.943340408615767956e-03
-9.969799779355525970e-03
-5.975365638732910156e-02
-2.466779761016368866e-02
-1.835146993398666382e-01
-6.709722429513931274e-02
-6.372299790382385254e-02
-3.988487645983695984e-03
-2.709840657189488411e-03
4.300452172756195068e-01
3.559667989611625671e-02
2.688900008797645569e-02
-5.000794306397438049e-02
9.229737333953380585e-03
1.657000370323657990e-02
-4.077148810029029846e-02
1.384778320789337158e-01
7.853390998207032681e-04
-1.805852726101875305e-02
-2.548362687230110168e-02
5.227013491094112396e-03
-3.188775479793548584e-01
3.697259118780493736e-03
-1.571347750723361969e-02
1.029414869844913483e-02
2.089386107400059700e-03
-7.735693454742431641e-02
1.259231287986040115e-02
4.273172467947006226e-02
9.766488336026668549e-03
-3.545268997550010681e-02
-7.023011567071080208e-04
-1.183328311890363693e-02
8.475851416587829590e-01
9.778305888175964355e-03
-2.759020403027534485e-02
2.722373418509960175e-02
3.004936501383781433e-02
5.416749417781829834e-02
1.815304160118103027e-02
-2.041686140000820160e-02
3.405950497835874557e-03
4.254762828350067139e-02
-3.340994566679000854e-02
-1.441385783255100250e-02
-1.958176121115684509e-02
2.777262032032012939e-01
-4.507255926728248596e-02
-1.450217515230178833e-01
-3.496576473116874695e-02
-2.272516302764415741e-02
2.776162140071392059e-02
3.438795730471611023e-02
-4.948235750198364258e-01
-2.923358418047428131e-02
4.785445705056190491e-02
-2.888151071965694427e-02
-1.287381048314273357e-03
2.825084701180458069e-02
-3.998952452093362808e-03
6.704868748784065247e-03
2.018365636467933655e-02
-5.003285408020019531e-01
1.938202790915966034e-02
-1.826796494424343109e-02
-5.078974366188049316e-01
6.826242897659540176e-03
7.816978031769394875e-04
-1.742867939174175262e-02
-5.149119533598423004e-03
7.635199930518865585e-03
-1.935669034719467163e-02
1.762753725051879883e-02
-4.150588065385818481e-02
-4.344885051250457764e-02
-4.301949869841337204e-03
-1.991315558552742004e-02
4.820358939468860626e-03
-1.447403877973556519e-01
2.871642410755157471e-01
-5.170968919992446899e-02
3.151344880461692810e-02
-5.311694368720054626e-02
-4.211102146655321121e-03
8.009452139958739281e-04
-1.235926290974020958e-03
9.553945809602737427e-02
1.630339771509170532e-02
-1.654770672321319580e-01
1.298412866890430450e-02
-8.541769348084926605e-03
2.510938048362731934e-02
1.046594325453042984e-02
4.685814306139945984e-02
-3.334085270762443542e-02
4.309869185090065002e-02
1.287833228707313538e-02
1.159914396703243256e-02
4.383192397654056549e-03
1.548811700195074081e-02
8.023103326559066772e-02
-2.949627861380577087e-02
8.719717152416706085e-03
-9.132644161581993103e-03
-2.689851447939872742e-03
-2.598210796713829041e-02
-1.103312429040670395e-02
-1.815032213926315308e-02
2.637440711259841919e-02
4.508855286985635757e-03
-1.819877326488494873e-02
6.431366801261901855e-01
-2.636200375854969025e-02
-8.299774527549743652e-01
-7.362098898738622665e-03
1.652836217544972897e-03
3.543061017990112305e-02
1.305198576301336288e-02
-7.908427119255065918e-01
-1.123515069484710693e-01
-1.794637553393840790e-02
-7.048712112009525299e-03
-7.615447044372558594e-02
-2.003749832510948181e-02
-1.937225088477134705e-02
-1.379925105720758438e-02
-4.034322872757911682e-02
-1.237638946622610092e-02
-3.504976630210876465e-03
3.248049411922693253e-03
5.339545663446187973e-03
8.062310814857482910e-01
5.019712075591087341e-02
2.394440583884716034e-02
-2.933324873447418213e-02
3.217623829841613770e-01
-4.868751764297485352e-02
4.028182942420244217e-03
-2.363609150052070618e-02
-1.497568329796195030e-03
2.108973450958728790e-03
1.802482083439826965e-02
5.698211193084716797e-01
6.951405201107263565e-03
-9.418334811925888062e-03
-3.718277439475059509e-02
-3.283574944362044334e-03
-1.030555926263332367e-02
7.339752744883298874e-03
-1.511155068874359131e-01
2.671829424798488617e-03
1.721328124403953552e-02
-7.960085570812225342e-02
-1.612635254859924316e-01
-3.053837642073631287e-02
-9.922149183694273233e-05
3.898855065926909447e-03
9.883036836981773376e-03
-3.188931941986083984e-02
-4.751610569655895233e-03
3.287333622574806213e-02
9.771879762411117554e-03
2.616652473807334900e-02
8.732900023460388184e-01
2.052005194127559662e-02
-1.081902813166379929e-02
-1.187481451779603958e-03
-1.430458761751651764e-02
1.012690085917711258e-02
3.360261395573616028e-02
2.581716887652873993e-02
1.012308835983276367e+00
-1.005015224218368530e-01
3.698373585939407349e-02
-9.777195751667022705e-03
-3.124924935400485992e-02
-7.928837537765502930e-01
-1.625413820147514343e-02
3.792580217123031616e-02
-6.023708265274763107e-03
9.036451578140258789e-01
-6.138085853308439255e-03
-7.568528503179550171e-02
9.020168334245681763e-03
-4.751906171441078186e-02
-2.210520394146442413e-02
-3.869827687740325928e-01
8.941181004047393799e-02
-4.478621110320091248e-02
1.694414392113685608e-02
2.214558422565460205e-02
2.479862188920378685e-03
3.517493978142738342e-02
6.412502527236938477e-01
-9.579156525433063507e-03
-2.714881673455238342e-03
3.808329999446868896e-02
-3.040735237300395966e-02
1.879346929490566254e-02
-7.791867246851325035e-04
-4.725952818989753723e-02
2.894989447668194771e-03
-1.635250635445117950e-02
2.274776622653007507e-02
-5.224746838212013245e-02
5.149748325347900391e-01
-9.212022647261619568e-03
2.165594696998596191e-02
2.868404984474182129e-02
1.125203892588615417e-01
-2.533082291483879089e-02
1.268675085157155991e-02
-3.444025060161948204e-03
-6.826309114694595337e-02
-2.888005785644054413e-02
-2.525820396840572357e-03
1.382840611040592194e-02
6.080695893615484238e-03
2.479169750586152077e-03
2.335162274539470673e-02
-1.741266697645187378e-01
-3.895303001627326012e-03
-2.222744673490524292e-01
-2.023166790604591370e-02
2.082979492843151093e-02
3.096485324203968048e-02
-5.375098437070846558e-02
1.794102863641455770e-04
4.789287690073251724e-03
-6.756276357918977737e-03
1.308670500293374062e-03
2.522871829569339752e-02
-3.071138449013233185e-02
4.410943388938903809e-01
1.399922464042901993e-02
8.546996861696243286e-03
-2.791218832135200500e-02
6.454121321439743042e-02
-3.763603419065475464e-02
-1.206315588206052780e-02
-1.513610184192657471e-01
-4.980962257832288742e-03
-1.097613293677568436e-02
-6.029361113905906677e-02
6.150837522000074387e-03
8.487018197774887085e-02
-6.585497409105300903e-03
4.070971906185150146e-02
-3.089274838566780090e-02
-6.601414084434509277e-02
-1.767222769558429718e-02
2.255905717611312866e-01
-3.549127839505672455e-03
-1.091076526790857315e-02
3.506838381290435791e-01
8.336337283253669739e-03
-1.607743278145790100e-02
-8.135064691305160522e-02
-9.655582718551158905e-03
4.652221873402595520e-02
-2.468829415738582611e-02
-6.283426773734390736e-04
-4.028534516692161560e-02
2.427028864622116089e-02
-2.186087705194950104e-02
-1.080205570906400681e-02
-5.646666884422302246e-02
5.385860335081815720e-03
6.712587084621191025e-03
-4.438376519829034805e-03
9.875489398837089539e-03
-6.332051753997802734e-02
-3.198778629302978516e-02
-4.863150790333747864e-02
2.026648446917533875e-02
1.116332411766052246e-02
-9.332665055990219116e-02
4.795735329389572144e-02
1.665650866925716400e-02
3.757607191801071167e-03
2.202647179365158081e-02
1.074488181620836258e-02
-1.247703563421964645e-02
-2.215741015970706940e-02
-6.804241240024566650e-02
-1.295048277825117111e-02
-2.222493290901184082e-01
1.116919983178377151e-02
-1.175409369170665741e-02
9.133829735219478607e-03
-2.337843328714370728e-01
-3.800558447837829590e-01
2.196167781949043274e-02
-1.018667407333850861e-02
-6.841404363512992859e-03
-1.435936312191188335e-03
1.492169965058565140e-02
-1.006134133785963058e-02
-1.410193443298339844e-01
-1.090594753623008728e-02
-6.351158954203128815e-03
7.275156378746032715e-01
-9.010020494461059570e-01
-5.336750298738479614e-03
-1.393778435885906219e-02
4.878104031085968018e-01
8.472092449665069580e-03
-2.294699698686599731e-01
1.009183190762996674e-02
3.680943548679351807e-01
-6.222030613571405411e-03
1.895274408161640167e-02
-2.491835318505764008e-02
-9.132685227086767554e-05
-5.796417221426963806e-02
-2.024252898991107941e-02
1.875427737832069397e-02
-2.233034558594226837e-02
6.072659511119127274e-03
-3.036956768482923508e-04
-1.176464371383190155e-02
1.022833399474620819e-02
2.058118283748626709e-01
1.516759744845330715e-03
-4.253324586898088455e-03
-2.835803106427192688e-02
2.752062082290649414e-01
9.102209005504846573e-04
-3.046447224915027618e-02
-4.493571817874908447e-03
-3.166657174006104469e-03
-5.968511849641799927e-02
6.082450971007347107e-02
6.734610069543123245e-03
-4.334293603897094727e-01
4.262929433025419712e-04
6.024868488311767578e-01
-1.220953091979026794e-01
5.495123099535703659e-03
-2.271541953086853027e-02
4.590589180588722229e-02
5.098029375076293945e-01
2.838822603225708008e-01
1.219114288687705994e-02
2.291036304086446762e-03
-7.732088211923837662e-03
3.916435316205024719e-02
2.225670032203197479e-02
1.232016645371913910e-02
-2.541741356253623962e-02
2.772777080535888672e-01
-1.256734225898981094e-02
3.949437290430068970e-03
-1.391148120164871216e-01
7.284393068403005600e-03
3.067439794540405273e-02
8.858929388225078583e-03
-1.297166571021080017e-02
-3.094604052603244781e-02
-1.174583565443754196e-02
-1.122851390391588211e-02
4.842855967581272125e-03
1.369583886116743088e-02
-6.281093508005142212e-02
3.030875511467456818e-02
-1.392728369683027267e-02
8.783099241554737091e-03
5.764149129390716553e-03
-3.252728655934333801e-02
9.413192421197891235e-02
3.902650177478790283e-01
1.300369575619697571e-02
-1.062861760146915913e-03
1.906909281387925148e-03
6.760005373507738113e-03
-1.262631826102733612e-02
1.730030961334705353e-02
-1.500993780791759491e-02
2.420858852565288544e-02
1.963015832006931305e-02
-2.779538743197917938e-02
4.278266429901123047e-02
1.008623372763395309e-02
1.934979576617479324e-03
-4.256376065313816071e-03
-8.797135087661445141e-04
5.933651234954595566e-03
1.086100656539201736e-02
1.504846755415201187e-02
5.214964598417282104e-02
4.403309524059295654e-01
-2.150198072195053101e-02
-5.625705793499946594e-02
-9.611131623387336731e-03
-3.267183899879455566e-02
3.910880535840988159e-02
-3.199153020977973938e-02
-6.589600350707769394e-03
-2.466318458318710327e-01
-1.704059541225433350e-02
6.446177512407302856e-02
2.976076491177082062e-02
-3.177726874127984047e-03
-1.914558187127113342e-02
3.467633202672004700e-02
-4.585380852222442627e-02
5.026132464408874512e-01
-1.710067316889762878e-02
-7.006931304931640625e-02
4.670567344874143600e-03
-5.637417081743478775e-03
-1.060883863829076290e-03
-2.297846367582678795e-03
3.309355676174163818e-02
-3.076352179050445557e-03
1.849657855927944183e-02
3.980826213955879211e-02
1.246769097633659840e-03
-4.828681945800781250e-01
-2.760196924209594727e-01
-1.816563494503498077e-02
1.256559882313013077e-02
5.004692450165748596e-02
-1.156186938285827637e+00
-1.664184965193271637e-02
-2.823302708566188812e-02
-9.048072993755340576e-02
-2.041146717965602875e-02
-2.241246169432997704e-03
-4.917672369629144669e-03
-1.656831800937652588e-02
-4.355344176292419434e-01